//Numpy array shape [1, 3, 32]
//Min -1.000000000000
//Max 0.992187500000
//Number of zeros 0

#ifndef W19_H_
#define W19_H_

#ifndef __SYNTHESIS__
weight19_t w19[96];
#else
weight19_t w19[96] = {-1.0000000, 0.0234375, -1.0000000, 0.0312500, 0.1484375, -0.9843750, 0.0312500, 0.3125000, 0.1953125, -1.0000000, 0.5312500, -0.9921875, 0.2890625, 0.2812500, 0.1406250, 0.0156250, 0.0156250, 0.2500000, 0.0234375, 0.0781250, -1.0000000, 0.2734375, 0.2656250, -0.9843750, -0.9921875, 0.2890625, 0.2343750, -0.9921875, 0.1406250, -0.0078125, 0.2890625, 0.0156250, 0.9921875, 0.9921875, -0.0312500, -0.9921875, -0.9765625, -0.5000000, 0.8984375, -0.9765625, -0.9609375, 0.0156250, -0.8515625, -0.0390625, 0.9921875, -0.7031250, 0.9921875, -0.9921875, -0.9843750, 0.9921875, -0.9843750, -0.9765625, -0.0546875, -1.0000000, 0.9921875, -0.1562500, 0.9843750, 0.9921875, -1.0000000, -0.0937500, -0.9921875, 0.9921875, 0.9921875, 0.9921875, -0.0234375, 0.9921875, -0.2187500, -1.0000000, 0.9609375, 0.1875000, 0.8906250, -1.0000000, -0.9375000, -0.0078125, 0.7265625, -0.0468750, 0.9921875, -1.0000000, -0.9609375, -1.0000000, -1.0000000, -0.9921875, 0.9921875, 0.5156250, 0.0703125, 0.9921875, -0.3671875, 0.7656250, -0.8906250, -1.0000000, 0.9921875, 0.8906250, 0.9843750, -0.9921875, 0.9921875, 0.9921875};

#endif

#endif
