//Numpy array shape [32, 5]
//Min -1.000000000000
//Max 0.992187500000
//Number of zeros 2

#ifndef W16_H_
#define W16_H_

#ifndef __SYNTHESIS__
weight16_t w16[160];
#else
weight16_t w16[160] = {0.0390625, 0.0937500, 0.3515625, 0.9921875, -1.0000000, 0.9921875, 0.4453125, -1.0000000, -0.9687500, -0.2187500, 0.0000000, 0.0468750, -0.1093750, -0.0859375, 0.1875000, 0.1015625, 0.2890625, -1.0000000, -0.2500000, 0.9921875, 0.0234375, 0.0781250, -0.4062500, 0.0859375, -0.0078125, -0.1171875, -0.5781250, 0.9921875, -0.9218750, -0.0781250, 0.9765625, 0.9921875, -0.9843750, -1.0000000, 0.9921875, -0.3203125, 0.4609375, -0.1328125, -0.5859375, -0.0156250, -0.0078125, -0.1640625, -0.3828125, -0.1640625, -0.1328125, -0.9062500, -0.2187500, 0.9609375, 0.7265625, -0.3359375, -0.0078125, -0.8125000, -0.3906250, 0.9921875, 0.2421875, -0.3593750, 0.0781250, 0.0078125, -0.3203125, -0.0546875, -0.4531250, 0.3203125, 0.0390625, 0.0703125, -1.0000000, -0.3515625, -0.4843750, 0.0000000, 0.1093750, 0.0546875, 0.9921875, 0.7890625, -1.0000000, 0.2265625, -0.1328125, -0.1171875, -0.4531250, -0.0625000, 0.1171875, 0.9921875, 0.1875000, 0.4843750, -0.3906250, -0.2734375, 0.0546875, -0.4062500, -0.2421875, -0.0703125, -0.2500000, -0.2421875, -0.1796875, -0.1015625, 0.0625000, 0.5078125, 0.4296875, 0.9921875, 0.9843750, -0.9921875, 0.9921875, 0.8906250, -0.9921875, -1.0000000, 0.6796875, 0.9921875, 0.3828125, 0.1328125, -0.0625000, 0.3828125, -0.0859375, -0.3984375, 0.1406250, 0.0234375, -0.2812500, 0.4531250, 0.0078125, 0.9921875, -0.8203125, -0.9531250, -0.5468750, -1.0000000, 0.9921875, 0.9921875, -1.0000000, -0.8281250, -0.1953125, 0.0234375, 0.4531250, -1.0000000, -0.3515625, 0.9921875, 0.7656250, 0.9062500, 0.8281250, -0.9921875, 0.9921875, 0.9921875, 0.6484375, -1.0000000, -0.4843750, -0.4375000, 0.7812500, -0.8125000, 0.5468750, -0.2031250, -1.0000000, -0.8046875, 0.7265625, -0.7734375, 0.6718750, -0.9609375, 0.9921875, 0.6171875, -1.0000000, 0.3359375, 0.6328125, -0.9218750, 0.2500000, 0.4609375, -0.0390625, 0.0078125};

#endif

#endif
