//Numpy array shape [1, 32, 32]
//Min -1.000000000000
//Max 1.000000000000
//Number of zeros 0

#ifndef W23_H_
#define W23_H_

#ifndef __SYNTHESIS__
phi2_weight_t w23[1024];
#else
phi2_weight_t w23[1024] = {0.1084545, -0.0186070, 0.0503967, 0.7708302, -0.0915620, 0.8347985, -0.9982262, 0.0298433, 0.3923607, 0.0617174, 0.6839114, 0.0667889, 0.3065342, 0.0559260, -0.3574444, -0.9980180, 0.4985017, 0.4478717, 0.8665581, 0.3037653, -0.2959484, 0.3306880, 0.6019716, -0.9917690, 0.2161203, -0.9812352, 0.4548983, 0.2663196, -0.1509065, 0.7530509, 0.1333042, -1.0000000, 0.2290099, 0.0185807, 0.0377868, 0.1756226, -0.2959147, -0.0969069, -0.2243083, 0.2900971, -0.7726963, 0.3809121, -0.3969489, -0.0001948, -0.1688144, -0.0441150, 0.4700577, 0.3554041, 0.3185698, -0.1972758, -0.2835255, -0.1717200, 0.3204007, 0.5582932, -0.3471120, -0.2577339, 0.0548724, 0.1442194, 0.6950352, -0.1677171, -0.2759565, -0.0710773, 0.1614036, -0.1470633, -0.3205983, 0.3706542, 0.4115375, 0.4005541, 0.5393857, -0.0563314, 0.0951730, -0.0718947, -0.1738999, 0.1039596, -0.1424193, 0.0252221, -0.5871265, -0.3451262, -0.1926965, -0.2650004, 0.5629849, 0.3086334, -0.2342215, -0.0328245, 0.2618384, 0.2146103, -0.3871807, 0.1199402, 0.2269794, -0.3157183, -0.0691821, -0.1409059, -0.0107473, -0.3659616, -0.2029363, -0.0269353, 0.1645151, 0.2798762, 0.4311202, 0.0062165, -0.0376163, 0.1480353, -0.0218990, -0.3544927, 0.2865483, -0.6119118, -0.1027281, -0.4354099, 0.2895727, 0.4680593, 0.1430929, 0.1247071, -0.2759807, 0.0206827, -0.1340014, 0.0178133, -0.4702801, -0.3114745, 0.3830529, 0.0245291, -0.7731768, 0.3502944, -0.4137352, -0.0861809, 0.4382648, 0.6199643, -0.1337920, -0.4602621, -0.6243553, -0.2678320, -0.0068775, 0.9778821, 0.0902903, -0.4822159, -0.0854750, 0.0304866, 0.0964029, 0.1060776, 0.1112015, -0.2736109, -0.2162116, 0.0462561, -0.0277570, -0.1049248, 0.4052801, -0.0827219, 0.5698124, -0.6232288, 0.1107166, 0.3384998, -0.4049757, -0.1753088, 0.3128575, -0.0665063, 0.0655472, -0.0186734, -0.0058984, -0.2494554, 0.1293601, 0.3643626, 0.3909977, 0.4404798, 0.4016559, 0.5103571, 0.1466127, 0.5107942, -0.3477905, -0.2495071, -0.3297494, 0.2339229, 0.4624614, 0.0646892, 0.6246874, 0.0067298, 0.1504446, -0.8391730, -0.0776750, -0.0194300, 0.1438739, 0.2889979, -0.3852600, 0.0554685, 0.0249619, -0.9558674, 0.4956959, -0.1040909, 0.4314214, 0.4583140, 0.0509167, 0.1027654, -0.4792194, -1.0000000, -0.0802900, 0.3239422, 0.0458433, 0.5748132, 0.5894403, -0.1115398, 0.1310198, 0.0827883, 0.6335414, -0.2006023, 0.1404750, -0.0352027, -0.3722468, 0.4298614, 0.0234549, -0.2312193, -0.2583070, -0.0509070, 0.4850064, -0.4119893, -0.4265355, -0.4153864, -0.0424936, -0.0453556, 0.2800793, -0.0511241, -0.5239364, 0.0731650, -0.2388009, -0.9295087, -0.0152351, -0.3541575, -0.2845337, 0.2523018, -0.0880898, 0.6206082, 0.2720480, -0.3429896, 0.4405743, 0.1663939, 0.0958375, -0.6060730, 0.3219704, 0.0633417, 0.4390217, 0.2118123, -0.4022790, 0.0721713, -0.1690663, -0.2748700, -0.2671945, -0.2967997, -0.0780037, -0.0514452, 0.5963746, 0.3000153, 0.0304124, -0.0219812, 0.2207941, -0.0188142, -0.2381289, 0.2896407, -0.4706463, -0.0950300, -0.3299406, 0.0453538, -0.3041387, 0.6607422, 0.4979607, -0.3194094, 0.3026068, -0.0494169, -0.1412758, -0.0729161, -0.4517986, -0.3166119, -0.2042426, -0.1540192, -0.1159910, 0.4081364, 0.5887342, -0.3562484, -0.0244930, -0.5693617, -0.2438989, -0.1050781, 0.1703953, -0.1025832, 0.0034684, 0.1798618, 0.5348358, 0.4663317, 0.1528055, 0.1672933, -0.3966468, -0.0354821, 0.0207574, 0.4217629, 0.3441506, 0.5189206, 0.0866061, 0.5269688, -0.9984136, 0.1041477, 0.4249727, 0.9797857, 0.9273277, -0.2054068, 0.4466667, 0.2756002, 0.2047359, -0.9995556, 0.8819829, 0.2040442, 0.7203293, 0.4076848, 0.3840574, 0.2602180, 0.3159662, -0.9949985, 0.4096865, -0.7395789, 0.9931011, 0.0299941, 0.1225977, 0.6626486, -0.3922366, -1.0000000, 0.1796706, -0.6640096, 0.4032998, 0.8233451, 0.1915671, -0.3481552, -0.3531646, -0.3322267, 0.5621808, -0.2742711, 0.5084378, -0.0048115, 0.4374444, -0.1234128, 0.0381456, 0.1002754, -0.4821480, -0.0800631, 0.2266622, -0.0205687, -0.6355745, -0.4108464, 0.4402359, -0.2366712, 0.0487291, -0.0571249, -0.1955840, 0.1943458, -0.4710233, -0.0238172, -0.0770455, 0.0329974, 0.0239385, 0.4846556, 0.5237716, 0.2027334, 0.3523288, 0.4045118, -0.2467151, -0.0069654, -0.2134123, 0.2184141, -0.1859832, -0.2090155, -0.5511521, 0.2260025, -0.2466505, -0.0620418, 0.1478363, 0.1874434, 0.3750688, 0.2347201, -0.2690510, 0.5111964, -0.4463947, 0.1655971, 0.4857720, 0.5812857, 0.1641058, -0.4375491, 0.1069042, -0.8286104, -0.0446109, -0.2560409, 0.4553898, 0.8300894, -0.0735132, -0.6983137, -0.2552816, 0.9065056, -0.1315059, -0.1999534, 0.2093270, -0.8149830, -0.2052421, 0.0968588, 0.1373489, 0.9693479, 0.1920374, -0.5062211, -0.2749232, -0.4150795, -0.4087674, 0.3035470, -0.3296236, -0.1270758, -0.2979075, -0.2853377, -0.7541690, -0.2605931, -0.1703376, -0.7365555, -0.1340843, 0.2360118, -0.2832034, -0.7842161, 0.2139504, 0.7042879, 0.0899197, 0.3380158, 0.0553441, 0.9757630, -0.2869460, 0.3087797, 0.1297999, 0.2407355, 0.4013038, 0.4476636, 0.0343824, 0.2028470, 0.0321830, -0.0633003, 0.0004334, -0.4399523, 0.3509430, 0.4633100, 0.2863955, 0.2165527, 0.2657632, 0.3046716, 0.0187156, 0.0820718, -0.2600207, 0.1719158, 0.2855033, -0.2620319, 0.1197709, 0.0007921, 0.6531667, 0.0693051, -0.1114958, 0.0054998, -0.1943625, 0.0219049, 0.1006567, -0.1224860, 0.7336100, 0.8451840, 0.5590619, -0.2596587, -0.5941325, -0.2770575, 0.2047676, -0.5507234, 0.0370571, 0.1557763, 0.5622250, 0.2735478, -0.0086521, 0.3095424, 0.4864476, -0.8775676, 0.4006355, -0.6492432, -0.0187200, -1.0000000, -0.3220856, -1.0000000, 0.0381277, -0.3237611, -0.1271648, -0.9944268, 0.1739054, 0.8213496, -0.1571887, -0.6697656, 0.2716141, -0.3830892, -0.1686243, 0.0944204, 0.1026428, 0.2102409, -0.3414587, -0.8361751, 0.0862849, -0.0380287, -0.1267253, 0.2394516, -0.5062577, -0.3379822, -0.2050392, 0.2432393, 0.0697612, 0.1257554, -0.2980595, 0.0383493, 0.1315173, 0.3931954, 0.3675671, 0.2269292, 0.3983854, -0.2541451, 0.3315917, 0.0910137, -0.1356007, 0.5138275, 0.2076434, 0.2309225, 0.1451064, -0.5977839, -0.9766820, 0.6823111, -0.1347018, 0.2096123, -0.7366438, -0.9081956, -0.0698409, 0.0267598, 0.2576803, -0.3625391, 0.2106454, 0.0574423, -0.1146454, 0.6566710, -0.6687221, 0.1842098, 0.1907344, 0.0538727, 0.1179470, -0.4516988, -0.0142547, -0.7801005, -0.1239896, -0.1780435, -0.2014791, -0.9835266, 0.6852211, 0.4433749, 0.1109187, -0.9120942, 0.1817844, -0.0000534, 0.2058524, -0.0627466, -0.3540484, -0.5292463, 0.0397726, -0.4690250, 0.0373394, -0.1337806, -0.3677433, 0.6991111, 0.5098972, -0.6057546, 0.4105735, -0.2961141, -0.1885208, 0.2810101, -0.2065933, 0.2230184, -0.4497348, -0.3214580, -0.0160651, 0.0228440, -0.4810053, -0.3132905, -0.2587931, -0.2344013, -0.2884621, 0.0510092, 0.3931367, -0.0799751, -0.0134565, 0.0293900, -0.2759612, 0.1777300, -0.4083220, 0.2291132, 0.2331809, -0.1582316, -0.3289627, -0.2363753, 0.3238534, -0.0489276, -0.0651574, 0.2409453, 0.0646431, -0.0877699, -0.4085017, -0.0200455, 0.1543481, -0.0441313, 0.2427951, -0.1746369, -0.1820221, -0.1836458, 0.0253110, -0.1300292, 0.4486467, 1.0000000, 0.2604873, 0.0405066, -0.6232634, 0.9928146, -0.9381756, 0.0111917, -0.5901844, -0.1748111, -0.7960370, -0.0829287, -0.9038250, 0.7655587, 0.5430609, 0.0719741, -0.2323103, -1.0000000, -0.9692480, -0.0118874, -0.3186229, 0.0919357, -0.2482832, 0.0161140, -0.6942329, 0.0224063, 0.3032549, -0.6396772, -0.4185266, -0.9152068, -0.4115328, -0.6365350, -0.1613013, 0.4122383, -0.0967539, 0.4085221, 0.3347524, 0.8323483, -0.9960218, 0.0282660, 0.3663943, -0.0567824, 0.9925833, 0.2770658, 0.2353057, 0.3210015, -0.2722226, -0.4495085, 0.1291049, -0.5153790, 0.6392930, 0.2605330, 0.0719370, -0.9544957, 0.5541044, -0.9895071, 0.0764755, -0.8520995, 0.1413583, 0.0307379, 0.3660881, 0.2580197, -0.4804958, -0.9993872, 0.2069302, 0.9210005, -0.1210579, -0.2551358, -0.5587264, 0.8937830, -0.7746109, -0.0195790, 0.4666627, 0.5269296, -0.1549318, 0.0470083, 0.0149273, 0.9749414, -0.1794915, 0.1379687, -0.9238023, -0.2137090, -0.4078030, 0.4742129, 0.2626357, 0.2149118, -0.2152787, -0.3875052, -0.1996817, -0.3122676, 0.1991758, -0.4687568, 0.3859297, 0.2372776, 0.1294503, -0.2980612, -0.0267964, -0.2081717, 0.3725989, 0.7133791, 0.3080681, -0.4665010, 0.2400188, -0.2357632, -0.4089374, -0.0701801, 0.3943361, -0.1331195, 0.4572293, -0.5446109, -0.2084091, 0.0095397, 0.0872230, -0.0608412, -0.2281187, -0.2925308, -0.0242872, 0.0095901, -0.5493069, 0.4233695, -0.5359623, 0.0919207, 0.3419737, -0.0632766, 0.3937798, 0.2991174, 0.1438803, 0.4362177, -0.0951336, -0.6927142, 0.2162478, 0.6137733, 0.3924507, -0.8744660, -0.2521107, 0.4254116, -0.1361266, 0.3326199, -0.2137318, -0.0373053, -0.0962150, -0.5125168, -0.3085809, 0.3777880, -0.2262773, 0.2588413, -0.1205249, -0.3431066, -0.1670016, 0.4923245, -0.2699756, -0.1752474, 0.2963913, -0.0309124, -0.1307399, -0.4518850, -0.1122643, -0.5852108, -0.3230064, 0.0068308, -0.1844245, 0.4060208, -0.4063707, 0.1179184, 0.2963120, 0.6480352, -0.9964905, -0.3743298, 0.0540618, 0.6779068, 0.9957484, -0.5305960, -0.6898490, -0.3353982, 0.1430739, -0.8133704, 0.9508249, 0.0091517, 0.6129704, 0.1264960, -0.1412654, 0.9068932, -0.5580418, -0.9957407, 0.8157919, -0.8701428, 0.6163195, -0.5920970, -0.6582204, -0.0834037, -0.0327656, -0.9965992, -0.0345498, 0.4262246, 0.0539292, 0.3427664, 0.4546865, 0.6243389, 0.0880808, 0.0664608, -0.5161653, 0.0784235, 0.1450057, -0.0026217, -0.1844031, 0.6240157, -0.2882104, 0.3245253, 0.4844117, 0.2482098, -0.5127643, 0.1470101, 0.0285161, 0.4921063, -0.3946346, 0.3901861, 0.1377198, 0.1315261, 0.6766090, -0.4741175, 0.2930254, 0.7645347, -0.0572635, 0.1923255, 0.6470766, 1.0000000, -0.5880934, -0.3781170, -0.9918469, 1.0000000, -0.6725330, -0.1256641, -0.2314794, -0.8198225, -0.9945924, -0.0265269, 0.5606049, 0.6762709, 0.2539131, -0.1054271, -0.9870741, -0.4718991, -0.6252245, 0.7388740, -0.0206823, 0.6507730, -0.1856593, -0.2855884, -0.9715709, -0.1775794, 0.0851955, -0.3238695, -0.1685473, -0.7633343, -0.1455455, -0.4578182, -0.1429599, 0.4230001, 0.2477302, 0.3384807, 0.1817524, 0.5211482, -0.9988242, 0.1288806, 0.9990621, 0.4641867, 0.9473975, 0.3969176, 0.0942522, -0.1261429, -0.3658118, -0.9971260, -0.2325671, -0.0588029, 0.1804051, -0.0622273, 0.1441519, 0.1470517, 0.2930810, -0.9981760, 0.9891545, -0.5717516, -0.6264777, -0.3840282, 0.1470562, -0.0189060, 0.3109130, -0.9984714, -0.0394992, -0.0485784, -0.2136482, 0.3697303, 0.1500542, 0.4184003, -1.0000000, -0.2632776, 0.9938170, 0.4655120, 0.9852987, 0.1239269, -0.0324944, -0.2599698, -0.4681627, -0.9945064, 0.2475113, -0.2164240, 0.8092677, -0.0777235, -0.4953743, 0.7001631, 0.8268796, -0.9895442, 0.6813253, -1.0000000, 0.4524738, 0.4423782, -0.5464673, -0.3126832, -0.4020414, -0.9966409, -0.2127656, -0.2709044, 0.2817885, 0.6669340, 0.5241924, -0.9913965, 0.0386785, -0.1211600, -0.2081503, -0.1117665, 0.3562794, 0.0198450, 0.2434042, -0.2183517, 0.2190516, 0.5846042, -0.0394507, 0.1473179, 0.0716876, -0.6361172, 0.3107974, -0.2913536, 0.5588253, -0.1523265, -0.0161811, -0.2576599, -0.0396958, -0.0565224, -0.3024014, 0.3642388, -0.6226284, 0.2604980, -0.5214373, 0.2250474, 0.0057297, 0.8021091, 0.3555269, 0.0084027, -0.1484864, -0.2574358, 0.4195763, 0.4887498, 0.2692287, -0.2530543, 0.3142837, -0.0717892, 0.0683270, 0.2986129, -0.2316478, 0.0553150, 0.2475814, -0.2295929, 0.4070563, -0.1363177, 0.4691688, 0.0667488, 0.0475254, -0.1198593, -0.2162254, -0.1394073, 0.5175083, 0.0683146, 0.0984254, 0.3788268, -0.0588954, -0.3276253, -0.0213605, 0.9952625, 0.1908041, -0.0799107, 0.3919550, -0.2686329, 0.4560210, 0.0721744, -0.1113895, -0.5915648, 0.4991486, -0.0088093, -0.1341623, -0.0133302, -0.5691326, -0.1105480, -0.0330308, -0.2059479, 0.1033557, -0.9028351, 0.4740732, 0.2278053, 0.4484273, 0.3726844, -0.5067366, -0.3313024, 0.3686992, 0.3482991, 0.3080316, -0.1856001};

#endif

#endif
