//Numpy array shape [1, 32, 32]
//Min -1.000000000000
//Max 1.000000000000
//Number of zeros 0

#ifndef W24_H_
#define W24_H_

#ifndef __SYNTHESIS__
phi3_weight_t w24[1024];
#else
phi3_weight_t w24[1024] = {-0.2431562, 0.5013559, -0.5291234, -0.0434079, -0.1231150, 0.4279739, -0.6875650, -0.3518034, 0.0147340, -0.5707543, -1.0000000, 0.4456376, 0.3434525, -0.8291016, -0.0560981, 0.5962532, 0.4255850, 0.0331861, 0.3198917, 0.6283600, -0.3309225, 0.5473059, 0.3312016, 0.4300483, 0.3528363, -0.2960502, -0.3098302, -0.2707813, -0.3252057, 0.1904688, -0.1874184, -0.1507454, -0.8413147, 0.5579489, -0.2285753, -0.0986941, -0.2069306, -0.3857330, -0.9947562, 0.0210477, -0.3398866, 0.0897394, -0.3180786, -0.0068466, 0.4744589, 0.1938474, 0.2501310, 0.2961651, 0.9795804, -0.3788653, -0.3965712, 1.0000000, -0.1188310, 0.4356893, 0.4051560, 0.3711416, 0.0415636, -0.3241590, -1.0000000, -1.0000000, -0.5840142, 0.9658577, -0.1646613, -0.6213326, -0.3025072, -0.1514461, -0.4703025, -0.2714691, 0.3966227, -0.1320597, -0.1938162, 0.0688755, -0.0544326, -0.0846509, 0.2258879, -0.1205362, -0.9914563, -0.2425902, 0.0790731, -0.9982185, -0.3161110, 0.2074610, -0.0857994, -0.2322133, 0.0363702, -0.5533751, 0.2042269, -0.6319550, -0.6771225, 0.1273776, 0.3230757, -0.0931225, 0.1018799, -0.8481441, 0.0357069, 0.1408526, 0.0656912, -0.9587813, 0.2251790, -0.0218824, 0.3243839, 0.5433229, -0.3588158, 0.3050731, 0.1167215, -0.0367118, -0.3288258, 0.1445591, -0.9991594, -0.1547857, -0.5019392, -0.9715949, -0.5543776, -0.1229115, -0.2148498, -0.5067442, -0.3029791, -0.6800801, 0.0667090, -0.5033683, -0.2560495, 0.4936050, 0.3206474, 0.2090988, -0.0912278, -0.8977634, -0.3333736, -0.4814064, 0.1332311, 0.1683292, -0.2829946, 0.2667318, 0.2659252, 0.2032340, 0.3378328, -0.3370197, 0.2244797, 0.0693177, 0.2624017, 0.3261790, -0.3422553, 0.4528546, 0.3498692, -0.5167586, -1.0000000, -0.0775397, 0.0685384, -0.6970158, 0.0664881, -0.4334170, -0.2937663, -0.1295847, -0.3409658, 0.1469840, 0.4471825, 0.4047706, 0.3112154, -1.0000000, 0.0001288, 0.5169843, -1.0000000, 0.9996111, 0.0276268, -0.2680284, -0.9999725, -0.3627408, -0.9983619, 0.3567185, 0.3188624, -0.3860314, -0.9984984, -0.1799263, 0.4663104, -0.7107362, 0.3060938, 0.1840846, 0.9033034, -0.4380058, -0.4908705, 0.7752872, -0.4764819, 0.7520825, 0.6388363, 0.2780449, 0.4044663, -0.4261063, -0.4660630, -0.9958449, -0.3049493, 0.4889031, -0.2159758, -0.9380378, -0.3593180, 0.8213186, -0.3605711, 0.5569295, 0.4118228, 0.5105333, -0.4255221, -0.5022315, 0.3561492, -0.3000363, -0.0573629, 0.1613902, -0.6137656, -0.4211114, -0.3584567, -0.5345543, -0.2985106, 0.2862974, 0.4737397, 0.1097624, -0.4133996, 0.1482054, 0.1659412, -0.6249779, 0.6100907, 0.1205615, -0.3552072, 0.3295071, -0.0547565, -0.2778831, 0.1662105, -0.1901532, -0.1414086, 0.1461076, 0.3107590, 0.3301413, -0.0157965, -0.1183299, 0.1222502, 0.3140634, -0.0243131, 0.0746054, 0.2419454, -0.4912036, 0.1872918, -0.2985379, -0.2489154, 0.1381637, -0.1908652, -0.0037977, -0.1320059, 0.1586171, 0.0394248, 0.4027431, 0.0222042, -0.0085440, -0.1034048, -0.5501830, -0.3575173, -0.4017572, -0.3220223, 0.4719818, -0.0503543, -0.0354199, 0.9959667, -0.5063876, -0.2015126, -0.3163304, -0.7938176, -0.6964465, 0.6335174, 0.9994953, -0.9425923, 0.5218450, 0.3019235, -0.4707142, -0.9997804, 0.6053135, 0.3071715, -0.6925951, -0.0801570, -0.9992977, -0.1583095, -0.1338831, 0.4518769, -0.2135645, -0.4235380, 0.4140059, 0.5078096, -0.9997682, 0.5756792, 0.5134596, -0.5091296, -0.9253694, -0.5666273, 0.6866246, -0.0494198, -0.5765515, -0.4930611, -0.2195255, 0.0755351, -0.5405784, 0.1166068, 0.3371709, -0.2468339, 0.3500619, 0.6350787, -0.2172837, -0.3339831, 0.2543091, 0.6378754, -0.9733326, -0.5497549, -0.4780677, -0.0904497, 0.1128882, 0.7330082, -0.1122430, 0.0929164, -0.3928314, 0.4502818, -0.2988781, 0.4008693, 0.3677642, -0.2635924, -0.8844244, -0.0884719, 0.8423073, 0.3890497, -0.4204111, -0.3428029, 0.6455194, -0.4286068, -0.9154295, 0.5666127, 0.8512261, 0.2981080, 0.8993759, 0.4172156, -0.4345625, -0.1431345, 0.9256211, 0.8712445, -0.3151568, -0.6138274, -0.0681867, 0.2122793, 0.2203468, 0.9820150, -0.3333620, 0.0474189, -0.0091544, 0.3970035, -0.4481221, -0.0214429, 0.0279145, -0.7735022, -0.3254241, -0.4415313, 0.9938289, 0.4566783, -0.4071319, -0.0305029, 0.0749091, -0.3217546, -0.5847378, -0.0238535, -0.4708635, 0.3363600, 0.0311926, 0.4602514, 0.2023492, -0.0406133, 0.1210759, 0.1140498, -0.3391007, 0.4222181, 0.0526966, -0.4676168, 0.0246236, 0.2332728, 0.5257205, 0.1211077, 0.2268132, 0.0697865, -0.2660349, -0.0024382, 0.2381719, -0.0053402, 0.0452420, -0.1912507, -0.0990228, 0.2842586, -0.0118576, -0.3028882, -0.3433782, -0.5295303, -0.3583285, -0.0324879, 0.3827926, -0.4181374, 0.0448384, 0.3879673, -0.0010663, -0.6231951, 0.4729121, 0.1177315, -0.8093106, 0.1777383, -0.9958405, 0.0852860, 0.2773147, -0.0647851, 0.2056893, 0.2087779, 0.2545635, 0.4399812, -0.7403771, -0.3108592, -0.2101345, 0.1263912, -0.4463584, 0.0742433, 0.1728837, -0.5889335, 0.4405850, -0.1453031, -0.0860067, -0.4887784, -0.3509983, -0.9838023, -0.1195519, -0.5087681, -0.0557762, -0.4311390, -0.4279198, 0.6488679, -0.3212892, 0.2726464, 0.8052532, 0.7052673, -0.6083459, -0.3798429, 0.2727880, -0.0294418, 0.4743470, -0.1686984, 0.3293188, 0.3816582, -0.5896221, 0.0771021, -0.8902489, 0.4269873, 0.8699827, -0.5439981, -0.0982575, -0.1039942, 0.6476467, 0.1104547, 0.0353182, 0.2359385, 0.5378155, -0.6093463, -0.0211792, -0.2895496, -0.3784696, -0.7169048, -0.1053715, 0.2405697, -0.9707544, -0.3274499, -0.1771376, 0.2460351, 0.0256597, 0.0969353, 0.3722565, -0.5241931, 0.2010252, 0.1039447, 0.3204753, 0.3728067, 0.0448125, -0.4545107, -0.2418439, 0.3717256, 0.3676549, 0.1574921, -0.6633829, 0.1827874, -0.2837200, 0.0820868, 0.2620737, 0.4608603, 0.0434684, 0.0738550, -0.0880757, 0.1863976, -0.0090108, -0.0398656, 0.1091694, 0.0195039, -0.1512906, 0.1254713, 0.2663358, -0.1480203, 0.4929821, 0.2634321, -0.1676701, -0.1706826, -0.2915799, 0.0130841, 0.1232249, 0.0019885, 0.1593004, 0.4116455, -0.3493333, 0.0965755, 0.2342517, 0.2227804, 0.0004143, 0.5108360, -1.0000000, -0.3070406, -0.0801390, -0.4830400, -0.2943927, 0.4450529, 0.5390775, -0.4780145, 0.8717592, 0.6102065, -0.4734237, -0.1014060, 0.7990447, 0.5058797, -0.5419196, -0.1219436, -0.8531095, -0.2642382, -0.8210629, 0.5119404, -0.4045993, -0.3107855, -0.2238277, 0.6539991, -0.2850644, 0.3559719, 0.3518689, -0.3671067, -1.0000000, -0.0648810, 0.8149236, -0.0383542, -0.1045589, -0.5610173, -0.1355231, -0.1394984, 0.2674715, 0.3798607, -0.1385273, -0.3004510, -0.3275440, 0.2988413, 0.2811457, -0.9849143, -0.2131032, -0.3536661, -0.9954846, -0.9810448, 0.1233395, 0.0689366, -0.5089416, 0.1177847, -0.6949905, 0.1174562, -0.3156886, -0.4549821, -0.1412971, 0.0912939, 0.1148580, 0.4560065, -1.0000000, -0.5953796, -0.0857935, 0.3701700, -0.0409197, -0.1566591, 0.3345215, -0.1265473, -0.6029038, 0.4904998, 0.2026990, 0.2574255, 0.3921826, 0.6261383, -0.3363175, 0.1213316, 0.3801539, 0.3906485, -0.6640999, -0.1639776, -0.0148929, 0.1349418, -0.4964323, 0.4450666, 0.2836139, -0.1561845, -0.3795041, 0.4736502, -0.4839984, 0.3926941, 0.5160294, 0.0252411, -0.0675883, -0.0056369, 0.2234954, -0.2797180, 0.8710421, -0.6832619, 0.3763886, -0.6354646, 0.0378012, -0.0617054, 0.2456262, 0.2264912, -0.4685722, -0.5134488, 0.5134558, -0.1196934, -0.8014847, 0.0017063, 0.2353277, 0.2391544, -0.0487396, -0.1804785, 0.7921739, -0.9838633, 0.4904372, 0.2683529, 0.2151820, -0.0992647, 0.2689540, -0.5394393, -0.3101753, 0.3014587, 0.5595194, -0.1590148, -0.9375993, -0.3825459, -0.2579120, 0.0214621, -0.2261904, 0.3385228, -0.0706713, -0.0872017, 0.4778536, 0.1288211, -0.1651626, -0.0724455, -0.1551560, 0.4162571, -0.2748201, 0.3546097, -0.4839356, -0.2981268, 0.0195086, -0.2767085, 0.1650219, 0.3134564, 0.2895642, -0.2154541, -0.1312624, 0.0215564, -0.0379572, -0.1845098, -0.2317661, 0.1858305, -0.4355118, -0.2393648, -0.0179368, 0.5948086, -0.3808467, 0.0451636, 0.0670674, -0.5678705, -0.9304887, 0.5186202, 0.7516949, -0.9925715, 0.3851291, 0.0093369, -0.4122377, -0.3924082, 0.5114744, 0.3141252, -0.0844409, 0.2230780, -0.9956892, 0.0662497, 0.2977502, 0.2655987, 0.1641021, -0.3549115, 0.4118288, 0.0186217, -0.9973436, 0.0149051, 0.2912817, -0.5743271, 0.2489375, 0.0402802, 0.3574232, 0.4365181, -0.5580662, -0.3032622, -0.2888599, -0.1423262, -0.5544361, 0.6539073, 0.5639276, -1.0000000, 0.9600058, 0.7502657, -0.0690671, -0.6581024, 0.5247960, 0.6006296, -0.9941610, -0.2317318, -0.8102313, -0.0109305, -0.1722453, 0.7492934, -0.1495741, -0.4929121, -0.7010410, 0.2218774, -0.7174984, 0.2855701, 0.6795558, -0.0808363, -0.9934478, -0.1617030, 0.5524421, -0.2595316, -0.0097175, -0.1603997, 0.7841033, 0.3006245, -0.0378990, -0.2076441, -0.0003205, 0.4497252, -0.1387965, -0.3281500, 0.4178364, 0.2323473, -0.1666054, -0.3071383, -0.5043113, 0.1703310, 0.4890664, 0.6250353, -0.1466067, 0.0038863, -0.0632538, 0.3472310, -0.1438148, 0.2601771, 0.4610011, 0.3288189, 0.2455612, 0.5042386, -0.1189149, -0.1929579, 0.4590003, 0.8003685, -0.2724341, 0.0743247, 0.0467461, -0.3103008, -0.3289689, 0.4728767, 0.5259953, 0.0560704, 0.6839616, 0.3073936, 0.1616426, -0.0378820, 0.5389367, 0.2127070, -0.3463547, 0.0745599, 0.1134815, -0.0943265, -0.1933918, 0.4076950, -0.0058310, -0.2401077, -0.0768893, 0.7297977, -0.1936809, 0.4618628, 0.1505361, -0.2128888, -0.4625404, 0.0676254, 0.2147116, -0.3340428, 0.4458160, -0.0882979, 0.0516432, -0.3289089, -0.2200121, -0.2583151, 0.0482953, 0.5909616, -0.4769754, -0.2637249, 0.1218176, 0.4076513, -0.3107876, -0.0609993, 0.1231374, 0.5667999, 0.2040871, 0.1284619, -0.1729344, -0.1950499, -0.0002043, 0.2499605, -0.1371139, -0.0571748, 0.2647957, 0.2251702, -0.2599313, 0.2799932, 0.0426587, -0.3696964, 0.0060649, 0.6378065, -0.0358717, -0.2230139, -0.3021947, -0.2713019, -0.8925363, 0.4401569, 0.5252767, -0.7701031, 0.4570803, 0.4468083, -0.1393022, -0.3943446, 0.4164790, 0.2697006, -0.2482456, -0.0267033, -0.6295207, -0.2984707, 0.1517982, 0.4184714, 0.0574689, -0.2033465, -0.0863041, 0.3367979, -0.9694813, 0.2460554, 0.4038051, -0.0345312, -0.3933023, 0.2490963, 0.2900529, 0.0430729, -0.5894796, 0.0863323, -0.3930569, 0.0944844, 0.3766148, 0.4049436, 0.0981465, 0.0026901, -0.3813510, -0.0761275, -0.3749939, -0.2967378, 0.2156479, 0.3534092, -0.2184003, -0.3326199, -0.3333509, 0.0915172, -0.7731978, -0.1702182, 0.1455898, 0.0147956, -0.1464451, -0.4949769, -0.3360718, -0.0802131, 0.2393050, -0.0240482, -0.2936763, 0.0624921, 0.0265140, 0.1991839, -0.5024574, -0.3665273, 0.1234421, 0.0925436, -0.0750082, -0.1641534, -0.2920001, 0.1290779, 0.1940696, -0.3259631, -0.0546528, -0.4822546, 0.4056279, 0.3347018, -0.2921468, -0.6774868, 0.1297107, 0.0088051, -0.2351845, -0.0998927, 0.1853214, -0.0645242, 0.0415074, 0.1144587, 0.0745757, 0.0046141, 0.5516317, -0.0369504, -0.4525613, 0.1399633, 0.0019049, 0.8114806, -0.2082029, -0.0175842, -0.2994311, -0.5928895, -0.9626736, 0.8607846, 0.9390907, -1.0000000, 0.8158631, 0.5814574, -0.4168452, -1.0000000, 0.4037257, 0.0823340, -0.9997541, -0.3503610, -1.0000000, -0.5008302, -0.4750356, 0.8701769, -0.5188177, -0.6297421, -0.0351396, 0.1299120, -0.9740260, 0.7138205, 0.5890719, -0.5713355, -0.9771794, -0.4002844, 0.5795500, -0.0291408, 0.5043139, 0.0106535, -0.2183184, 0.3122295, 0.0730784, -0.0118114, 0.2114982, -0.5111548, -0.1826216, -0.4048946, 0.2400502, -0.2194274, -0.1224075, -0.2818207, 0.0497644, -0.4533140, 0.2103305, 0.0494738, -0.1817563, -0.3429152, -0.1382388, 0.2551665, -0.2376418, -0.4046847, 0.3091368, 0.1386448, 0.1074517, -0.3495105, -0.2383914, -0.1646842, 0.0808451, -0.1224805, 0.9772053, 0.0774060, 0.5413296, 0.2031756, 0.2419257, -0.2762973, -0.1869698, 0.6772044, -0.4881487, -0.5012935, 0.3681799, 0.1945497, -0.3197347, -0.6808699, -0.1874198, -0.0861458, 0.1190260, 0.4129044, 0.7701285, -0.2417687, -0.0339126, 0.2073528, 0.4624777, -0.8552781, 0.2246232, -0.4205760, 0.0136547, 0.5925140, 0.3663265, 0.4894663, -0.1091000};

#endif

#endif
