//Numpy array shape [32, 5]
//Min -1.000000000000
//Max 0.992187500000
//Number of zeros 0

#ifndef W16_H_
#define W16_H_

#ifndef __SYNTHESIS__
weight16_t w16[160];
#else
weight16_t w16[160] = {-0.9687500, -0.9843750, 0.9843750, -0.9843750, 0.7031250, -1.0000000, 0.9687500, 0.9765625, 0.7187500, 0.9765625, -0.3203125, 0.0234375, -0.2656250, -0.0859375, -0.1796875, 0.1484375, -0.1015625, -0.1640625, -0.1171875, 0.1562500, 0.9921875, 0.9921875, 0.9921875, -1.0000000, 0.9843750, -0.9687500, -0.9921875, 0.9843750, 0.1640625, 0.0156250, -0.8906250, 0.9765625, -0.2734375, -0.0546875, -1.0000000, -0.9375000, 0.6718750, 0.9843750, 0.9921875, -0.7500000, 0.9921875, 0.9921875, -0.9765625, 0.9843750, -1.0000000, 0.4140625, 0.9765625, -1.0000000, -0.9921875, 0.9921875, 0.9921875, 0.9843750, -1.0000000, -0.4218750, 0.7812500, -0.1953125, -0.0625000, -0.0781250, 0.1953125, -0.0937500, 0.9765625, 0.9843750, -1.0000000, 0.9609375, 0.3359375, 0.9921875, -1.0000000, -1.0000000, -0.9531250, -0.9531250, -0.3515625, -0.1406250, -0.3750000, -0.3046875, -0.2187500, 0.9843750, 0.7968750, -0.5468750, -0.9687500, 0.5937500, 0.9921875, 0.6484375, -1.0000000, 0.9453125, -1.0000000, 0.4296875, 0.8671875, 0.9921875, 0.9921875, -1.0000000, 0.9921875, 0.9921875, 0.9921875, -1.0000000, 0.9843750, 0.8906250, 0.9843750, -1.0000000, 0.9921875, 0.9921875, -0.0937500, -0.3906250, -0.1250000, -0.0625000, -0.0937500, -0.3359375, -0.9843750, -1.0000000, 0.9921875, 0.1093750, 0.5390625, -0.3671875, -0.1953125, 0.5703125, -1.0000000, -0.1796875, 0.1875000, 0.4140625, -0.3984375, 0.2734375, 0.9921875, -0.9921875, -0.9687500, -1.0000000, -0.9765625, 0.6250000, 0.5859375, 0.9375000, -0.9843750, 0.9218750, 0.5312500, 0.2343750, -1.0000000, 0.9921875, -0.9687500, 0.3046875, 0.4843750, -1.0000000, 0.9765625, 0.9843750, 0.9921875, 0.9921875, -1.0000000, -0.9843750, 0.9921875, -0.2187500, -0.8046875, 0.9843750, 0.4531250, -0.9921875, -0.9921875, -0.9687500, 0.3203125, 0.2109375, 0.9765625, 0.9921875, -0.4296875, -1.0000000, -0.9765625, 0.9921875};

#endif

#endif
